|--- malic_acid <= 2.67
|   |--- alcohol <= 12.83
|   |   |--- alcohol <= 12.49
|   |   |   |--- value: [1.00]
|   |   |--- alcohol >  12.49
|   |   |   |--- ash <= 2.06
|   |   |   |   |--- value: [1.00]
|   |   |   |--- ash >  2.06
|   |   |   |   |--- alcohol <= 12.62
|   |   |   |   |   |--- value: [2.00]
|   |   |   |   |--- alcohol >  12.62
|   |   |   |   |   |--- malic_acid <= 2.06
|   |   |   |   |   |   |--- value: [1.00]
|   |   |   |   |   |--- malic_acid >  2.06
|   |   |   |   |   |   |--- value: [2.00]
|   |--- alcohol >  12.83
|   |   |--- malic_acid <= 1.39
|   |   |   |--- malic_acid <= 1.30
|   |   |   |   |--- value: [1.00]
|   |   |   |--- malic_acid >  1.30
|   |   |   |   |--- value: [2.00]
|   |   |--- malic_acid >  1.39
|   |   |   |--- malic_acid <= 2.43
|   |   |   |   |--- alcohol <= 13.49
|   |   |   |   |   |--- alcohol <= 13.48
|   |   |   |   |   |   |--- ash <= 2.56
|   |   |   |   |   |   |   |--- value: [0.00]
|   |   |   |   |   |   |--- ash >  2.56
|   |   |   |   |   |   |   |--- alcohol <= 13.02
|   |   |   |   |   |   |   |   |--- value: [1.00]
|   |   |   |   |   |   |   |--- alcohol >  13.02
|   |   |   |   |   |   |   |   |--- value: [0.00]
|   |   |   |   |   |--- alcohol >  13.48
|   |   |   |   |   |   |--- value: [1.00]
|   |   |   |   |--- alcohol >  13.49
|   |   |   |   |   |--- value: [0.00]
|   |   |   |--- malic_acid >  2.43
|   |   |   |   |--- alcohol <= 13.70
|   |   |   |   |   |--- value: [0.00]
|   |   |   |   |--- alcohol >  13.70
|   |   |   |   |   |--- value: [2.00]
|--- malic_acid >  2.67
|   |--- ash <= 2.29
|   |   |--- ash <= 2.27
|   |   |   |--- ash <= 2.25
|   |   |   |   |--- alcohol <= 13.28
|   |   |   |   |   |--- alcohol <= 13.11
|   |   |   |   |   |   |--- value: [1.00]
|   |   |   |   |   |--- alcohol >  13.11
|   |   |   |   |   |   |--- value: [2.00]
|   |   |   |   |--- alcohol >  13.28
|   |   |   |   |   |--- value: [0.00]
|   |   |   |--- ash >  2.25
|   |   |   |   |--- value: [2.00]
|   |   |--- ash >  2.27
|   |   |   |--- value: [0.00]
|   |--- ash >  2.29
|   |   |--- alcohol <= 14.03
|   |   |   |--- malic_acid <= 3.75
|   |   |   |   |--- value: [2.00]
|   |   |   |--- malic_acid >  3.75
|   |   |   |   |--- malic_acid <= 3.81
|   |   |   |   |   |--- value: [0.00]
|   |   |   |   |--- malic_acid >  3.81
|   |   |   |   |   |--- malic_acid <= 4.45
|   |   |   |   |   |   |--- ash <= 2.39
|   |   |   |   |   |   |   |--- ash <= 2.35
|   |   |   |   |   |   |   |   |--- value: [1.00]
|   |   |   |   |   |   |   |--- ash >  2.35
|   |   |   |   |   |   |   |   |--- value: [2.00]
|   |   |   |   |   |   |--- ash >  2.39
|   |   |   |   |   |   |   |--- value: [1.00]
|   |   |   |   |   |--- malic_acid >  4.45
|   |   |   |   |   |   |--- value: [2.00]
|   |   |--- alcohol >  14.03
|   |   |   |--- value: [0.00]
|--- malic_acid <= 2.38
|   |--- alcohol <= 12.83
|   |   |--- alcohol <= 12.77
|   |   |   |--- alcohol <= 12.49
|   |   |   |   |--- value: [1.00]
|   |   |   |--- alcohol >  12.49
|   |   |   |   |--- alcohol <= 12.59
|   |   |   |   |   |--- value: [2.00]
|   |   |   |   |--- alcohol >  12.59
|   |   |   |   |   |--- value: [1.00]
|   |   |--- alcohol >  12.77
|   |   |   |--- value: [2.00]
|   |--- alcohol >  12.83
|   |   |--- alcohol <= 13.02
|   |   |   |--- malic_acid <= 1.63
|   |   |   |   |--- value: [0.00]
|   |   |   |--- malic_acid >  1.63
|   |   |   |   |--- value: [1.00]
|   |   |--- alcohol >  13.02
|   |   |   |--- ash <= 2.63
|   |   |   |   |--- value: [0.00]
|   |   |   |--- ash >  2.63
|   |   |   |   |--- ash <= 2.65
|   |   |   |   |   |--- value: [2.00]
|   |   |   |   |--- ash >  2.65
|   |   |   |   |   |--- value: [0.00]
|--- malic_acid >  2.38
|   |--- ash <= 2.86
|   |   |--- alcohol <= 14.17
|   |   |   |--- ash <= 2.18
|   |   |   |   |--- alcohol <= 13.23
|   |   |   |   |   |--- value: [1.00]
|   |   |   |   |--- alcohol >  13.23
|   |   |   |   |   |--- value: [0.00]
|   |   |   |--- ash >  2.18
|   |   |   |   |--- ash <= 2.65
|   |   |   |   |   |--- alcohol <= 12.03
|   |   |   |   |   |   |--- value: [1.00]
|   |   |   |   |   |--- alcohol >  12.03
|   |   |   |   |   |   |--- alcohol <= 13.63
|   |   |   |   |   |   |   |--- alcohol <= 12.35
|   |   |   |   |   |   |   |   |--- alcohol <= 12.27
|   |   |   |   |   |   |   |   |   |--- value: [2.00]
|   |   |   |   |   |   |   |   |--- alcohol >  12.27
|   |   |   |   |   |   |   |   |   |--- value: [1.00]
|   |   |   |   |   |   |   |--- alcohol >  12.35
|   |   |   |   |   |   |   |   |--- value: [2.00]
|   |   |   |   |   |   |--- alcohol >  13.63
|   |   |   |   |   |   |   |--- malic_acid <= 3.18
|   |   |   |   |   |   |   |   |--- value: [0.00]
|   |   |   |   |   |   |   |--- malic_acid >  3.18
|   |   |   |   |   |   |   |   |--- value: [2.00]
|   |   |   |   |--- ash >  2.65
|   |   |   |   |   |--- ash <= 2.68
|   |   |   |   |   |   |--- value: [0.00]
|   |   |   |   |   |--- ash >  2.68
|   |   |   |   |   |   |--- alcohol <= 12.68
|   |   |   |   |   |   |   |--- value: [1.00]
|   |   |   |   |   |   |--- alcohol >  12.68
|   |   |   |   |   |   |   |--- value: [2.00]
|   |   |--- alcohol >  14.17
|   |   |   |--- value: [0.00]
|   |--- ash >  2.86
|   |   |--- value: [0.00]
|--- alcohol <= 13.50
|   |--- malic_acid <= 2.89
|   |   |--- ash <= 2.82
|   |   |   |--- malic_acid <= 2.50
|   |   |   |   |--- alcohol <= 13.04
|   |   |   |   |   |--- alcohol <= 12.86
|   |   |   |   |   |   |--- alcohol <= 12.79
|   |   |   |   |   |   |   |--- alcohol <= 12.49
|   |   |   |   |   |   |   |   |--- value: [1.00]
|   |   |   |   |   |   |   |--- alcohol >  12.49
|   |   |   |   |   |   |   |   |--- malic_acid <= 1.31
|   |   |   |   |   |   |   |   |   |--- value: [2.00]
|   |   |   |   |   |   |   |   |--- malic_acid >  1.31
|   |   |   |   |   |   |   |   |   |--- value: [1.00]
|   |   |   |   |   |   |--- alcohol >  12.79
|   |   |   |   |   |   |   |--- value: [0.00]
|   |   |   |   |   |--- alcohol >  12.86
|   |   |   |   |   |   |--- malic_acid <= 1.12
|   |   |   |   |   |   |   |--- value: [1.00]
|   |   |   |   |   |   |--- malic_acid >  1.12
|   |   |   |   |   |   |   |--- value: [2.00]
|   |   |   |   |--- alcohol >  13.04
|   |   |   |   |   |--- ash <= 2.63
|   |   |   |   |   |   |--- malic_acid <= 1.25
|   |   |   |   |   |   |   |--- value: [1.00]
|   |   |   |   |   |   |--- malic_acid >  1.25
|   |   |   |   |   |   |   |--- alcohol <= 13.48
|   |   |   |   |   |   |   |   |--- value: [0.00]
|   |   |   |   |   |   |   |--- alcohol >  13.48
|   |   |   |   |   |   |   |   |--- value: [1.00]
|   |   |   |   |   |--- ash >  2.63
|   |   |   |   |   |   |--- value: [2.00]
|   |   |   |--- malic_acid >  2.50
|   |   |   |   |--- ash <= 2.28
|   |   |   |   |   |--- value: [1.00]
|   |   |   |   |--- ash >  2.28
|   |   |   |   |   |--- value: [2.00]
|   |   |--- ash >  2.82
|   |   |   |--- value: [0.00]
|   |--- malic_acid >  2.89
|   |   |--- ash <= 2.12
|   |   |   |--- value: [0.00]
|   |   |--- ash >  2.12
|   |   |   |--- ash <= 2.65
|   |   |   |   |--- alcohol <= 12.37
|   |   |   |   |   |--- ash <= 2.21
|   |   |   |   |   |   |--- value: [2.00]
|   |   |   |   |   |--- ash >  2.21
|   |   |   |   |   |   |--- value: [1.00]
|   |   |   |   |--- alcohol >  12.37
|   |   |   |   |   |--- malic_acid <= 5.66
|   |   |   |   |   |   |--- alcohol <= 12.76
|   |   |   |   |   |   |   |--- alcohol <= 12.61
|   |   |   |   |   |   |   |   |--- value: [2.00]
|   |   |   |   |   |   |   |--- alcohol >  12.61
|   |   |   |   |   |   |   |   |--- ash <= 2.38
|   |   |   |   |   |   |   |   |   |--- value: [2.00]
|   |   |   |   |   |   |   |   |--- ash >  2.38
|   |   |   |   |   |   |   |   |   |--- value: [1.00]
|   |   |   |   |   |   |--- alcohol >  12.76
|   |   |   |   |   |   |   |--- value: [2.00]
|   |   |   |   |   |--- malic_acid >  5.66
|   |   |   |   |   |   |--- value: [1.00]
|   |   |   |--- ash >  2.65
|   |   |   |   |--- malic_acid <= 4.11
|   |   |   |   |   |--- value: [0.00]
|   |   |   |   |--- malic_acid >  4.11
|   |   |   |   |   |--- value: [1.00]
|--- alcohol >  13.50
|   |--- malic_acid <= 2.33
|   |   |--- ash <= 2.66
|   |   |   |--- value: [0.00]
|   |   |--- ash >  2.66
|   |   |   |--- alcohol <= 13.82
|   |   |   |   |--- value: [0.00]
|   |   |   |--- alcohol >  13.82
|   |   |   |   |--- value: [1.00]
|   |--- malic_acid >  2.33
|   |   |--- alcohol <= 14.18
|   |   |   |--- ash <= 2.52
|   |   |   |   |--- value: [2.00]
|   |   |   |--- ash >  2.52
|   |   |   |   |--- alcohol <= 13.58
|   |   |   |   |   |--- value: [2.00]
|   |   |   |   |--- alcohol >  13.58
|   |   |   |   |   |--- value: [0.00]
|   |   |--- alcohol >  14.18
|   |   |   |--- value: [0.00]
|--- malic_acid <= 2.24
|   |--- alcohol <= 13.02
|   |   |--- alcohol <= 12.79
|   |   |   |--- value: [1.00]
|   |   |--- alcohol >  12.79
|   |   |   |--- alcohol <= 12.92
|   |   |   |   |--- value: [0.00]
|   |   |   |--- alcohol >  12.92
|   |   |   |   |--- value: [1.00]
|   |--- alcohol >  13.02
|   |   |--- malic_acid <= 1.69
|   |   |   |--- alcohol <= 14.23
|   |   |   |   |--- alcohol <= 13.53
|   |   |   |   |   |--- malic_acid <= 1.65
|   |   |   |   |   |   |--- value: [0.00]
|   |   |   |   |   |--- malic_acid >  1.65
|   |   |   |   |   |   |--- malic_acid <= 1.66
|   |   |   |   |   |   |   |--- value: [1.00]
|   |   |   |   |   |   |--- malic_acid >  1.66
|   |   |   |   |   |   |   |--- value: [2.00]
|   |   |   |   |--- alcohol >  13.53
|   |   |   |   |   |--- malic_acid <= 1.37
|   |   |   |   |   |   |--- value: [1.00]
|   |   |   |   |   |--- malic_acid >  1.37
|   |   |   |   |   |   |--- value: [0.00]
|   |   |   |--- alcohol >  14.23
|   |   |   |   |--- value: [2.00]
|   |   |--- malic_acid >  1.69
|   |   |   |--- value: [0.00]
|--- malic_acid >  2.24
|   |--- ash <= 2.13
|   |   |--- malic_acid <= 3.79
|   |   |   |--- value: [1.00]
|   |   |--- malic_acid >  3.79
|   |   |   |--- value: [0.00]
|   |--- ash >  2.13
|   |   |--- alcohol <= 14.19
|   |   |   |--- ash <= 2.55
|   |   |   |   |--- alcohol <= 12.12
|   |   |   |   |   |--- value: [1.00]
|   |   |   |   |--- alcohol >  12.12
|   |   |   |   |   |--- alcohol <= 12.74
|   |   |   |   |   |   |--- ash <= 2.39
|   |   |   |   |   |   |   |--- value: [2.00]
|   |   |   |   |   |   |--- ash >  2.39
|   |   |   |   |   |   |   |--- alcohol <= 12.30
|   |   |   |   |   |   |   |   |--- value: [2.00]
|   |   |   |   |   |   |   |--- alcohol >  12.30
|   |   |   |   |   |   |   |   |--- value: [1.00]
|   |   |   |   |   |--- alcohol >  12.74
|   |   |   |   |   |   |--- value: [2.00]
|   |   |   |--- ash >  2.55
|   |   |   |   |--- alcohol <= 13.58
|   |   |   |   |   |--- ash <= 2.65
|   |   |   |   |   |   |--- value: [2.00]
|   |   |   |   |   |--- ash >  2.65
|   |   |   |   |   |   |--- alcohol <= 13.38
|   |   |   |   |   |   |   |--- ash <= 2.68
|   |   |   |   |   |   |   |   |--- value: [0.00]
|   |   |   |   |   |   |   |--- ash >  2.68
|   |   |   |   |   |   |   |   |--- malic_acid <= 2.63
|   |   |   |   |   |   |   |   |   |--- value: [0.00]
|   |   |   |   |   |   |   |   |--- malic_acid >  2.63
|   |   |   |   |   |   |   |   |   |--- ash <= 2.81
|   |   |   |   |   |   |   |   |   |   |--- value: [2.00]
|   |   |   |   |   |   |   |   |   |--- ash >  2.81
|   |   |   |   |   |   |   |   |   |   |--- value: [1.00]
|   |   |   |   |   |   |--- alcohol >  13.38
|   |   |   |   |   |   |   |--- value: [2.00]
|   |   |   |   |--- alcohol >  13.58
|   |   |   |   |   |--- value: [0.00]
|   |   |--- alcohol >  14.19
|   |   |   |--- value: [0.00]
|--- malic_acid <= 2.24
|   |--- alcohol <= 12.79
|   |   |--- alcohol <= 12.44
|   |   |   |--- value: [1.00]
|   |   |--- alcohol >  12.44
|   |   |   |--- malic_acid <= 1.29
|   |   |   |   |--- ash <= 2.25
|   |   |   |   |   |--- value: [1.00]
|   |   |   |   |--- ash >  2.25
|   |   |   |   |   |--- value: [2.00]
|   |   |   |--- malic_acid >  1.29
|   |   |   |   |--- value: [1.00]
|   |--- alcohol >  12.79
|   |   |--- malic_acid <= 1.30
|   |   |   |--- value: [1.00]
|   |   |--- malic_acid >  1.30
|   |   |   |--- ash <= 2.74
|   |   |   |   |--- ash <= 2.25
|   |   |   |   |   |--- ash <= 2.21
|   |   |   |   |   |   |--- value: [0.00]
|   |   |   |   |   |--- ash >  2.21
|   |   |   |   |   |   |--- value: [1.00]
|   |   |   |   |--- ash >  2.25
|   |   |   |   |   |--- value: [0.00]
|   |   |   |--- ash >  2.74
|   |   |   |   |--- ash <= 2.79
|   |   |   |   |   |--- value: [2.00]
|   |   |   |   |--- ash >  2.79
|   |   |   |   |   |--- value: [0.00]
|--- malic_acid >  2.24
|   |--- ash <= 2.14
|   |   |--- alcohol <= 13.23
|   |   |   |--- value: [1.00]
|   |   |--- alcohol >  13.23
|   |   |   |--- value: [0.00]
|   |--- ash >  2.14
|   |   |--- alcohol <= 14.19
|   |   |   |--- ash <= 2.86
|   |   |   |   |--- alcohol <= 12.47
|   |   |   |   |   |--- malic_acid <= 2.96
|   |   |   |   |   |   |--- value: [1.00]
|   |   |   |   |   |--- malic_acid >  2.96
|   |   |   |   |   |   |--- ash <= 2.63
|   |   |   |   |   |   |   |--- alcohol <= 12.03
|   |   |   |   |   |   |   |   |--- value: [1.00]
|   |   |   |   |   |   |   |--- alcohol >  12.03
|   |   |   |   |   |   |   |   |--- ash <= 2.26
|   |   |   |   |   |   |   |   |   |--- alcohol <= 12.27
|   |   |   |   |   |   |   |   |   |   |--- value: [2.00]
|   |   |   |   |   |   |   |   |   |--- alcohol >  12.27
|   |   |   |   |   |   |   |   |   |   |--- value: [1.00]
|   |   |   |   |   |   |   |   |--- ash >  2.26
|   |   |   |   |   |   |   |   |   |--- value: [2.00]
|   |   |   |   |   |   |--- ash >  2.63
|   |   |   |   |   |   |   |--- value: [1.00]
|   |   |   |   |--- alcohol >  12.47
|   |   |   |   |   |--- malic_acid <= 3.78
|   |   |   |   |   |   |--- alcohol <= 13.58
|   |   |   |   |   |   |   |--- value: [2.00]
|   |   |   |   |   |   |--- alcohol >  13.58
|   |   |   |   |   |   |   |--- malic_acid <= 2.93
|   |   |   |   |   |   |   |   |--- value: [2.00]
|   |   |   |   |   |   |   |--- malic_acid >  2.93
|   |   |   |   |   |   |   |   |--- value: [0.00]
|   |   |   |   |   |--- malic_acid >  3.78
|   |   |   |   |   |   |--- malic_acid <= 3.88
|   |   |   |   |   |   |   |--- value: [1.00]
|   |   |   |   |   |   |--- malic_acid >  3.88
|   |   |   |   |   |   |   |--- value: [2.00]
|   |   |   |--- ash >  2.86
|   |   |   |   |--- malic_acid <= 2.63
|   |   |   |   |   |--- value: [0.00]
|   |   |   |   |--- malic_acid >  2.63
|   |   |   |   |   |--- value: [1.00]
|   |   |--- alcohol >  14.19
|   |   |   |--- value: [0.00]
|--- alcohol <= 13.51
|   |--- malic_acid <= 2.45
|   |   |--- alcohol <= 13.02
|   |   |   |--- alcohol <= 12.79
|   |   |   |   |--- alcohol <= 12.47
|   |   |   |   |   |--- value: [1.00]
|   |   |   |   |--- alcohol >  12.47
|   |   |   |   |   |--- alcohol <= 12.52
|   |   |   |   |   |   |--- value: [2.00]
|   |   |   |   |   |--- alcohol >  12.52
|   |   |   |   |   |   |--- value: [1.00]
|   |   |   |--- alcohol >  12.79
|   |   |   |   |--- ash <= 2.46
|   |   |   |   |   |--- value: [2.00]
|   |   |   |   |--- ash >  2.46
|   |   |   |   |   |--- value: [1.00]
|   |   |--- alcohol >  13.02
|   |   |   |--- alcohol <= 13.09
|   |   |   |   |--- value: [0.00]
|   |   |   |--- alcohol >  13.09
|   |   |   |   |--- ash <= 2.72
|   |   |   |   |   |--- malic_acid <= 1.72
|   |   |   |   |   |   |--- ash <= 2.50
|   |   |   |   |   |   |   |--- value: [1.00]
|   |   |   |   |   |   |--- ash >  2.50
|   |   |   |   |   |   |   |--- value: [2.00]
|   |   |   |   |   |--- malic_acid >  1.72
|   |   |   |   |   |   |--- value: [0.00]
|   |   |   |   |--- ash >  2.72
|   |   |   |   |   |--- value: [2.00]
|   |--- malic_acid >  2.45
|   |   |--- ash <= 2.65
|   |   |   |--- ash <= 2.14
|   |   |   |   |--- alcohol <= 13.23
|   |   |   |   |   |--- value: [1.00]
|   |   |   |   |--- alcohol >  13.23
|   |   |   |   |   |--- value: [0.00]
|   |   |   |--- ash >  2.14
|   |   |   |   |--- alcohol <= 12.03
|   |   |   |   |   |--- value: [1.00]
|   |   |   |   |--- alcohol >  12.03
|   |   |   |   |   |--- malic_acid <= 3.84
|   |   |   |   |   |   |--- value: [2.00]
|   |   |   |   |   |--- malic_acid >  3.84
|   |   |   |   |   |   |--- malic_acid <= 3.87
|   |   |   |   |   |   |   |--- value: [1.00]
|   |   |   |   |   |   |--- malic_acid >  3.87
|   |   |   |   |   |   |   |--- value: [2.00]
|   |   |--- ash >  2.65
|   |   |   |--- ash <= 2.68
|   |   |   |   |--- value: [0.00]
|   |   |   |--- ash >  2.68
|   |   |   |   |--- malic_acid <= 2.75
|   |   |   |   |   |--- ash <= 2.89
|   |   |   |   |   |   |--- value: [0.00]
|   |   |   |   |   |--- ash >  2.89
|   |   |   |   |   |   |--- value: [1.00]
|   |   |   |   |--- malic_acid >  2.75
|   |   |   |   |   |--- value: [2.00]
|--- alcohol >  13.51
|   |--- malic_acid <= 4.08
|   |   |--- ash <= 2.66
|   |   |   |--- malic_acid <= 2.46
|   |   |   |   |--- value: [0.00]
|   |   |   |--- malic_acid >  2.46
|   |   |   |   |--- malic_acid <= 2.93
|   |   |   |   |   |--- value: [2.00]
|   |   |   |   |--- malic_acid >  2.93
|   |   |   |   |   |--- value: [0.00]
|   |   |--- ash >  2.66
|   |   |   |--- alcohol <= 14.32
|   |   |   |   |--- alcohol <= 13.61
|   |   |   |   |   |--- value: [2.00]
|   |   |   |   |--- alcohol >  13.61
|   |   |   |   |   |--- malic_acid <= 1.66
|   |   |   |   |   |   |--- value: [1.00]
|   |   |   |   |   |--- malic_acid >  1.66
|   |   |   |   |   |   |--- value: [0.00]
|   |   |   |--- alcohol >  14.32
|   |   |   |   |--- value: [2.00]
|   |--- malic_acid >  4.08
|   |   |--- value: [2.00]
|--- malic_acid <= 2.28
|   |--- alcohol <= 12.95
|   |   |--- alcohol <= 12.86
|   |   |   |--- alcohol <= 12.79
|   |   |   |   |--- value: [1.00]
|   |   |   |--- alcohol >  12.79
|   |   |   |   |--- value: [0.00]
|   |   |--- alcohol >  12.86
|   |   |   |--- value: [2.00]
|   |--- alcohol >  12.95
|   |   |--- malic_acid <= 1.67
|   |   |   |--- malic_acid <= 1.65
|   |   |   |   |--- ash <= 1.90
|   |   |   |   |   |--- value: [1.00]
|   |   |   |   |--- ash >  1.90
|   |   |   |   |   |--- alcohol <= 13.84
|   |   |   |   |   |   |--- value: [0.00]
|   |   |   |   |   |--- alcohol >  13.84
|   |   |   |   |   |   |--- ash <= 2.58
|   |   |   |   |   |   |   |--- value: [0.00]
|   |   |   |   |   |   |--- ash >  2.58
|   |   |   |   |   |   |   |--- value: [1.00]
|   |   |   |--- malic_acid >  1.65
|   |   |   |   |--- ash <= 2.45
|   |   |   |   |   |--- alcohol <= 13.61
|   |   |   |   |   |   |--- value: [1.00]
|   |   |   |   |   |--- alcohol >  13.61
|   |   |   |   |   |   |--- value: [0.00]
|   |   |   |   |--- ash >  2.45
|   |   |   |   |   |--- value: [2.00]
|   |   |--- malic_acid >  1.67
|   |   |   |--- value: [0.00]
|--- malic_acid >  2.28
|   |--- alcohol <= 14.18
|   |   |--- alcohol <= 13.26
|   |   |   |--- ash <= 2.65
|   |   |   |   |--- malic_acid <= 3.84
|   |   |   |   |   |--- alcohol <= 12.35
|   |   |   |   |   |   |--- malic_acid <= 2.96
|   |   |   |   |   |   |   |--- value: [1.00]
|   |   |   |   |   |   |--- malic_acid >  2.96
|   |   |   |   |   |   |   |--- malic_acid <= 3.38
|   |   |   |   |   |   |   |   |--- value: [2.00]
|   |   |   |   |   |   |   |--- malic_acid >  3.38
|   |   |   |   |   |   |   |   |--- value: [1.00]
|   |   |   |   |   |--- alcohol >  12.35
|   |   |   |   |   |   |--- malic_acid <= 2.57
|   |   |   |   |   |   |   |--- alcohol <= 12.56
|   |   |   |   |   |   |   |   |--- value: [1.00]
|   |   |   |   |   |   |   |--- alcohol >  12.56
|   |   |   |   |   |   |   |   |--- value: [2.00]
|   |   |   |   |   |   |--- malic_acid >  2.57
|   |   |   |   |   |   |   |--- value: [2.00]
|   |   |   |   |--- malic_acid >  3.84
|   |   |   |   |   |--- ash <= 2.44
|   |   |   |   |   |   |--- alcohol <= 13.16
|   |   |   |   |   |   |   |--- alcohol <= 13.07
|   |   |   |   |   |   |   |   |--- value: [1.00]
|   |   |   |   |   |   |   |--- alcohol >  13.07
|   |   |   |   |   |   |   |   |--- value: [2.00]
|   |   |   |   |   |   |--- alcohol >  13.16
|   |   |   |   |   |   |   |--- value: [0.00]
|   |   |   |   |   |--- ash >  2.44
|   |   |   |   |   |   |--- value: [2.00]
|   |   |   |--- ash >  2.65
|   |   |   |   |--- value: [0.00]
|   |   |--- alcohol >  13.26
|   |   |   |--- malic_acid <= 3.11
|   |   |   |   |--- malic_acid <= 2.93
|   |   |   |   |   |--- value: [2.00]
|   |   |   |   |--- malic_acid >  2.93
|   |   |   |   |   |--- value: [0.00]
|   |   |   |--- malic_acid >  3.11
|   |   |   |   |--- value: [2.00]
|   |--- alcohol >  14.18
|   |   |--- value: [0.00]
|--- malic_acid <= 2.24
|   |--- alcohol <= 13.02
|   |   |--- alcohol <= 12.79
|   |   |   |--- alcohol <= 12.51
|   |   |   |   |--- value: [1.00]
|   |   |   |--- alcohol >  12.51
|   |   |   |   |--- alcohol <= 12.59
|   |   |   |   |   |--- value: [2.00]
|   |   |   |   |--- alcohol >  12.59
|   |   |   |   |   |--- value: [1.00]
|   |   |--- alcohol >  12.79
|   |   |   |--- malic_acid <= 1.51
|   |   |   |   |--- value: [2.00]
|   |   |   |--- malic_acid >  1.51
|   |   |   |   |--- value: [1.00]
|   |--- alcohol >  13.02
|   |   |--- malic_acid <= 1.69
|   |   |   |--- alcohol <= 14.18
|   |   |   |   |--- alcohol <= 13.70
|   |   |   |   |   |--- malic_acid <= 1.66
|   |   |   |   |   |   |--- ash <= 2.60
|   |   |   |   |   |   |   |--- value: [1.00]
|   |   |   |   |   |   |--- ash >  2.60
|   |   |   |   |   |   |   |--- value: [0.00]
|   |   |   |   |   |--- malic_acid >  1.66
|   |   |   |   |   |   |--- value: [2.00]
|   |   |   |   |--- alcohol >  13.70
|   |   |   |   |   |--- value: [0.00]
|   |   |   |--- alcohol >  14.18
|   |   |   |   |--- value: [2.00]
|   |   |--- malic_acid >  1.69
|   |   |   |--- value: [0.00]
|--- malic_acid >  2.24
|   |--- alcohol <= 14.27
|   |   |--- alcohol <= 12.12
|   |   |   |--- value: [1.00]
|   |   |--- alcohol >  12.12
|   |   |   |--- ash <= 2.65
|   |   |   |   |--- ash <= 2.14
|   |   |   |   |   |--- alcohol <= 13.23
|   |   |   |   |   |   |--- value: [1.00]
|   |   |   |   |   |--- alcohol >  13.23
|   |   |   |   |   |   |--- value: [0.00]
|   |   |   |   |--- ash >  2.14
|   |   |   |   |   |--- alcohol <= 12.74
|   |   |   |   |   |   |--- alcohol <= 12.27
|   |   |   |   |   |   |   |--- value: [2.00]
|   |   |   |   |   |   |--- alcohol >  12.27
|   |   |   |   |   |   |   |--- malic_acid <= 3.36
|   |   |   |   |   |   |   |   |--- value: [1.00]
|   |   |   |   |   |   |   |--- malic_acid >  3.36
|   |   |   |   |   |   |   |   |--- malic_acid <= 3.85
|   |   |   |   |   |   |   |   |   |--- value: [2.00]
|   |   |   |   |   |   |   |   |--- malic_acid >  3.85
|   |   |   |   |   |   |   |   |   |--- alcohol <= 12.61
|   |   |   |   |   |   |   |   |   |   |--- value: [2.00]
|   |   |   |   |   |   |   |   |   |--- alcohol >  12.61
|   |   |   |   |   |   |   |   |   |   |--- value: [1.00]
|   |   |   |   |   |--- alcohol >  12.74
|   |   |   |   |   |   |--- malic_acid <= 3.78
|   |   |   |   |   |   |   |--- value: [2.00]
|   |   |   |   |   |   |--- malic_acid >  3.78
|   |   |   |   |   |   |   |--- malic_acid <= 3.88
|   |   |   |   |   |   |   |   |--- value: [1.00]
|   |   |   |   |   |   |   |--- malic_acid >  3.88
|   |   |   |   |   |   |   |   |--- value: [2.00]
|   |   |   |--- ash >  2.65
|   |   |   |   |--- alcohol <= 13.38
|   |   |   |   |   |--- malic_acid <= 4.11
|   |   |   |   |   |   |--- value: [0.00]
|   |   |   |   |   |--- malic_acid >  4.11
|   |   |   |   |   |   |--- value: [1.00]
|   |   |   |   |--- alcohol >  13.38
|   |   |   |   |   |--- value: [2.00]
|   |--- alcohol >  14.27
|   |   |--- value: [0.00]
|--- malic_acid <= 2.46
|   |--- alcohol <= 13.02
|   |   |--- alcohol <= 12.55
|   |   |   |--- value: [1.00]
|   |   |--- alcohol >  12.55
|   |   |   |--- alcohol <= 12.59
|   |   |   |   |--- value: [2.00]
|   |   |   |--- alcohol >  12.59
|   |   |   |   |--- ash <= 2.30
|   |   |   |   |   |--- value: [1.00]
|   |   |   |   |--- ash >  2.30
|   |   |   |   |   |--- ash <= 2.46
|   |   |   |   |   |   |--- value: [2.00]
|   |   |   |   |   |--- ash >  2.46
|   |   |   |   |   |   |--- value: [1.00]
|   |--- alcohol >  13.02
|   |   |--- malic_acid <= 1.34
|   |   |   |--- value: [1.00]
|   |   |--- malic_acid >  1.34
|   |   |   |--- ash <= 2.25
|   |   |   |   |--- ash <= 2.21
|   |   |   |   |   |--- value: [0.00]
|   |   |   |   |--- ash >  2.21
|   |   |   |   |   |--- value: [1.00]
|   |   |   |--- ash >  2.25
|   |   |   |   |--- value: [0.00]
|--- malic_acid >  2.46
|   |--- ash <= 2.13
|   |   |--- malic_acid <= 3.79
|   |   |   |--- value: [1.00]
|   |   |--- malic_acid >  3.79
|   |   |   |--- value: [0.00]
|   |--- ash >  2.13
|   |   |--- alcohol <= 13.28
|   |   |   |--- alcohol <= 13.20
|   |   |   |   |--- ash <= 2.63
|   |   |   |   |   |--- alcohol <= 12.12
|   |   |   |   |   |   |--- value: [1.00]
|   |   |   |   |   |--- alcohol >  12.12
|   |   |   |   |   |   |--- ash <= 2.44
|   |   |   |   |   |   |   |--- ash <= 2.38
|   |   |   |   |   |   |   |   |--- alcohol <= 13.11
|   |   |   |   |   |   |   |   |   |--- alcohol <= 13.01
|   |   |   |   |   |   |   |   |   |   |--- ash <= 2.26
|   |   |   |   |   |   |   |   |   |   |   |--- ash <= 2.21
|   |   |   |   |   |   |   |   |   |   |   |   |--- value: [2.00]
|   |   |   |   |   |   |   |   |   |   |   |--- ash >  2.21
|   |   |   |   |   |   |   |   |   |   |   |   |--- value: [1.00]
|   |   |   |   |   |   |   |   |   |   |--- ash >  2.26
|   |   |   |   |   |   |   |   |   |   |   |--- value: [2.00]
|   |   |   |   |   |   |   |   |   |--- alcohol >  13.01
|   |   |   |   |   |   |   |   |   |   |--- value: [1.00]
|   |   |   |   |   |   |   |   |--- alcohol >  13.11
|   |   |   |   |   |   |   |   |   |--- value: [2.00]
|   |   |   |   |   |   |   |--- ash >  2.38
|   |   |   |   |   |   |   |   |--- value: [1.00]
|   |   |   |   |   |   |--- ash >  2.44
|   |   |   |   |   |   |   |--- value: [2.00]
|   |   |   |   |--- ash >  2.63
|   |   |   |   |   |--- ash <= 2.69
|   |   |   |   |   |   |--- value: [0.00]
|   |   |   |   |   |--- ash >  2.69
|   |   |   |   |   |   |--- value: [1.00]
|   |   |   |--- alcohol >  13.20
|   |   |   |   |--- value: [0.00]
|   |   |--- alcohol >  13.28
|   |   |   |--- alcohol <= 14.27
|   |   |   |   |--- value: [2.00]
|   |   |   |--- alcohol >  14.27
|   |   |   |   |--- value: [0.00]
|--- malic_acid <= 2.46
|   |--- alcohol <= 13.49
|   |   |--- alcohol <= 13.02
|   |   |   |--- ash <= 2.51
|   |   |   |   |--- alcohol <= 12.77
|   |   |   |   |   |--- value: [1.00]
|   |   |   |   |--- alcohol >  12.77
|   |   |   |   |   |--- value: [2.00]
|   |   |   |--- ash >  2.51
|   |   |   |   |--- ash <= 2.52
|   |   |   |   |   |--- value: [0.00]
|   |   |   |   |--- ash >  2.52
|   |   |   |   |   |--- value: [1.00]
|   |   |--- alcohol >  13.02
|   |   |   |--- alcohol <= 13.43
|   |   |   |   |--- alcohol <= 13.13
|   |   |   |   |   |--- alcohol <= 13.08
|   |   |   |   |   |   |--- value: [0.00]
|   |   |   |   |   |--- alcohol >  13.08
|   |   |   |   |   |   |--- malic_acid <= 1.45
|   |   |   |   |   |   |   |--- value: [1.00]
|   |   |   |   |   |   |--- malic_acid >  1.45
|   |   |   |   |   |   |   |--- value: [2.00]
|   |   |   |   |--- alcohol >  13.13
|   |   |   |   |   |--- value: [0.00]
|   |   |   |--- alcohol >  13.43
|   |   |   |   |--- ash <= 2.53
|   |   |   |   |   |--- malic_acid <= 1.73
|   |   |   |   |   |   |--- value: [1.00]
|   |   |   |   |   |--- malic_acid >  1.73
|   |   |   |   |   |   |--- value: [0.00]
|   |   |   |   |--- ash >  2.53
|   |   |   |   |   |--- value: [2.00]
|   |--- alcohol >  13.49
|   |   |--- malic_acid <= 1.55
|   |   |   |--- malic_acid <= 1.50
|   |   |   |   |--- value: [0.00]
|   |   |   |--- malic_acid >  1.50
|   |   |   |   |--- value: [1.00]
|   |   |--- malic_acid >  1.55
|   |   |   |--- value: [0.00]
|--- malic_acid >  2.46
|   |--- alcohol <= 14.18
|   |   |--- ash <= 2.86
|   |   |   |--- ash <= 2.14
|   |   |   |   |--- value: [1.00]
|   |   |   |--- ash >  2.14
|   |   |   |   |--- alcohol <= 12.12
|   |   |   |   |   |--- value: [1.00]
|   |   |   |   |--- alcohol >  12.12
|   |   |   |   |   |--- malic_acid <= 4.05
|   |   |   |   |   |   |--- malic_acid <= 3.95
|   |   |   |   |   |   |   |--- alcohol <= 13.61
|   |   |   |   |   |   |   |   |--- malic_acid <= 2.55
|   |   |   |   |   |   |   |   |   |--- ash <= 2.24
|   |   |   |   |   |   |   |   |   |   |--- value: [2.00]
|   |   |   |   |   |   |   |   |   |--- ash >  2.24
|   |   |   |   |   |   |   |   |   |   |--- value: [1.00]
|   |   |   |   |   |   |   |   |--- malic_acid >  2.55
|   |   |   |   |   |   |   |   |   |--- malic_acid <= 3.78
|   |   |   |   |   |   |   |   |   |   |--- value: [2.00]
|   |   |   |   |   |   |   |   |   |--- malic_acid >  3.78
|   |   |   |   |   |   |   |   |   |   |--- malic_acid <= 3.88
|   |   |   |   |   |   |   |   |   |   |   |--- value: [1.00]
|   |   |   |   |   |   |   |   |   |   |--- malic_acid >  3.88
|   |   |   |   |   |   |   |   |   |   |   |--- value: [2.00]
|   |   |   |   |   |   |   |--- alcohol >  13.61
|   |   |   |   |   |   |   |   |--- malic_acid <= 2.93
|   |   |   |   |   |   |   |   |   |--- value: [2.00]
|   |   |   |   |   |   |   |   |--- malic_acid >  2.93
|   |   |   |   |   |   |   |   |   |--- value: [0.00]
|   |   |   |   |   |   |--- malic_acid >  3.95
|   |   |   |   |   |   |   |--- value: [0.00]
|   |   |   |   |   |--- malic_acid >  4.05
|   |   |   |   |   |   |--- value: [2.00]
|   |   |--- ash >  2.86
|   |   |   |--- ash <= 2.89
|   |   |   |   |--- value: [0.00]
|   |   |   |--- ash >  2.89
|   |   |   |   |--- value: [1.00]
|   |--- alcohol >  14.18
|   |   |--- value: [0.00]
